{"layers": [{"weights": [[9.966872215270996, 0.9705427885055542], [-0.28353697061538696, 6.858606338500977], [-0.31932681798934937, -1.6782804727554321], [4.956279754638672, -3.458920955657959], [-0.38704246282577515, 0.16362088918685913], [5.896729946136475, 5.587286949157715], [-1.039406418800354, 5.92427921295166], [2.9335570335388184, -4.299539566040039], [2.367966413497925, 4.58011531829834], [0.2703116536140442, -0.4201750159263611], [-0.3257899880409241, -0.08292442560195923], [2.9359982013702393, -1.4713536500930786], [-0.17943690717220306, 0.27547749876976013], [2.3156800270080566, 2.237412929534912], [-1.9552170038223267, -24.095714569091797], [10.673567771911621, 4.5058512687683105], [7.712882041931152, 1.873921513557434], [2.2630672454833984, -0.09747196733951569], [-0.1597714126110077, -11.404483795166016], [0.07730069011449814, -0.22300250828266144]], "biases": [-0.679541826248169, -5.921618938446045, -4.632009506225586, 4.392656326293945, -0.9024899005889893, -5.918306350708008, -2.1527130603790283, -2.147352457046509, 2.4788506031036377, -1.0313961505889893, -0.6999709606170654, -3.2106728553771973, -1.0490704774856567, -0.6368364095687866, 1.6987278461456299, 4.551093101501465, -4.837730884552002, -1.810804009437561, -5.568730354309082, -0.5024089813232422], "activation": "relu"}, {"weights": [[-5.221085548400879, 12.698570251464844, -1.4738028049468994, 3.4222841262817383, -0.286397248506546, 13.972558975219727, -2.0137290954589844, -1.2460439205169678, -0.2577815353870392, 0.467052698135376, 0.201121523976326, -1.7723017930984497, 0.9891409277915955, -0.6049531698226929, -33.706356048583984, -0.6793831586837769, 9.248249053955078, 0.2906262278556824, 0.5084481835365295, 0.18580034375190735], [-0.7160179615020752, 0.4479900896549225, -0.48189887404441833, -0.6909260749816895, -0.4648371934890747, -0.653594970703125, -0.47276782989501953, -0.7747421860694885, -0.7138416767120361, 0.6684992909431458, 0.04727216437458992, 0.3396945595741272, -0.4672410488128662, -0.449292927980423, -0.7627030611038208, -0.7199260592460632, -0.39579930901527405, 0.5250774025917053, -0.6798099875450134, -0.21636073291301727], [-0.1280529499053955, 0.05585769936442375, -0.029514571651816368, -0.1623130440711975, 0.005245076026767492, -0.1527416706085205, -0.18970726430416107, -3.2472543716430664, -0.19570337235927582, -0.14237895607948303, 0.22351934015750885, -3.1134305000305176, 0.06890660524368286, -3.2695436477661133, -0.1468590795993805, -0.07442882657051086, 0.034965645521879196, -0.19675639271736145, -0.09634613990783691, -0.1338663548231125], [0.0006196721806190908, -0.6741316914558411, -0.6065438389778137, -0.7420929074287415, -0.15348263084888458, -0.13045260310173035, -0.6670225262641907, -0.17648856341838837, -0.40349480509757996, -0.04437790811061859, 0.1923905611038208, -0.5213717818260193, -0.18934956192970276, -0.43624404072761536, -0.061524249613285065, -0.08571431040763855, -0.18560940027236938, -0.8132475018501282, -0.5270231366157532, -0.04884553328156471], [-6.833843231201172, 10.830005645751953, -1.289850115776062, 6.160449028015137, -0.6320527195930481, 3.4670350551605225, 4.436901092529297, -1.6415235996246338, -4.094755172729492, -0.1773027777671814, 0.05627451092004776, -1.7756290435791016, -0.024503907188773155, -3.8296451568603516, -0.997549295425415, -20.52699851989746, 0.6444591283798218, -0.85715651512146, -10.480805397033691, -0.12089215964078903]], "biases": [-0.21946996450424194, -0.5523168444633484, -3.1168415546417236, -0.7880508899688721, 1.7773569822311401], "activation": "relu"}, {"weights": [[-3.418612003326416, 0.3951804041862488, -2.530970811843872, -0.49033674597740173, -3.9258170127868652]], "biases": [1.2131640911102295], "activation": "linear"}]}